{"inputs": ["mhs_channel3", "mhs_channel4", "mhs_channel5", "lat", "mhs_scnpos", "satellite_azimuth_angle", "satellite_zenith_angle", "solar_azimuth_angle", "solar_zenith_angle", "relative_azimuth_angle", "avhrr_channel1", "avhrr_channel2", "avhrr_channel4", "avhrr_channel5", "avhrr_scnpos"], "targets": ["iwp_log10"], "scaler": {"params": {"copy": true, "quantile_range": [25, 75], "with_centering": true, "with_scaling": true}, "coefs": {"center_": {"__ndarray__": [241.65999459847808, 252.9499943461269, 261.1099941637367, -0.40829998968547443, 48.0, 258.6399942189455, 6.959999844431877, 201.19999550282955, 70.56999842263758, 60.17298651812956, 8.223571244760283, 8.304166481054077, 251.445827713081, 249.93916108009094, 195.08333333333334], "dtype": "float64", "shape": [15]}, "scale_": {"__ndarray__": [4.60999989695847, 8.379999812692404, 18.11999959498644, 90.5140977134215, 12.0, 59.969998659566045, 10.099999774247408, 106.88999761082232, 68.07999847829342, 118.28492532629576, 25.019579860349218, 25.65416609325136, 25.935593825888702, 25.176592843852717, 49.5], "dtype": "float64", "shape": [15]}}}, "scaler_class": "robust", "estimator": {"params": {"activation": "tanh", "alpha": 0.0001, "batch_size": "auto", "beta_1": 0.9, "beta_2": 0.999, "early_stopping": false, "epsilon": 1e-08, "hidden_layer_sizes": [15, 10, 3], "learning_rate": "constant", "learning_rate_init": 0.001, "max_iter": 2000, "momentum": 0.9, "nesterovs_momentum": true, "power_t": 0.5, "random_state": 0, "shuffle": true, "solver": "lbfgs", "tol": 0.0001, "validation_fraction": 0.1, "verbose": false, "warm_start": false}, "coefs": {"n_outputs_": 1, "n_iter_": 2001, "t_": 0, "n_layers_": 5, "out_activation_": "identity", "coefs_": [{"__ndarray__": [[0.516030850872689, 0.09465879994691981, 0.02837432274233188, -0.004294868897419125, 0.051221418218549065, -0.6020095351297309, 0.019380842953956368, -0.05744268015746385, 0.6234409081109271, -0.08554969598560377, 0.0021368200881885014, 0.14781746917022692, -0.09533536920470466, -0.008130987492836809, -0.1754147130750733], [-1.2333033238617215, -0.844806473194747, -0.28037486802110834, 0.08289147557286511, -0.200546454612514, 2.1545475484611565, -0.08013631911806218, 0.18145617922441612, -0.5096080457051331, 0.0040338113265343326, 0.07415423009619435, -0.030266706350038752, -0.2059762486875111, 0.28214144022854704, -0.587476195437072], [-2.252898784366114, 1.6704989443998681, 0.20106829740510507, -0.2381554650992402, -0.13962550377243502, -0.86173820900113, 0.21017136917171178, 0.19455094659193223, 0.3954574820197901, -0.02126046872927187, 0.19472413916904385, -0.7959231389713526, 1.3705000075174714, -0.31507391533017015, 1.2393267369992176], [-0.15110088138333647, -0.0024251314495093075, 0.11500714471806599, 3.0981076531970557, -0.26888934956988925, -0.05327367563432466, -2.8379695018719038, 0.16956409263867162, 0.20968896105566373, -2.8289241440859, 0.0068722854844041, -0.1679247454830473, -0.3420134902952732, -0.09911979296034702, 0.4171838641682602], [0.06021059945127572, -0.3155311842603993, 0.12967553288700231, -0.25568336522603663, -0.37999264583097137, 0.10450558113229948, 0.051576349009790586, -0.31457536477730025, 0.22217219244814781, -0.05588236718096127, 0.25020695562667905, 0.1667174021818268, 0.07060813501693262, 0.11908465053893633, -0.029729495700832307], [-0.014373648477139633, 0.003804771215389331, -0.0005301809604622906, -0.002861474681745284, -0.005731558272212023, -0.011834551883085413, -0.009047833404963094, -0.0017633680545811516, 0.005719019229455199, -0.004536327513164305, -0.002277740510820009, -0.004036616249202452, -0.0030727065230056797, 0.004995011011453513, 0.028585725425298258], [0.007614255959309998, 0.02094241669917064, -0.0031636481653686687, 0.00455948881428043, 0.00627593431941966, 0.028049870887771215, 0.03908351430209505, -0.016436225567186297, 0.016644126608511497, -0.0827895234679733, 0.005508334442085194, 0.0197460502039157, 0.015445867724752278, 0.026069229783918974, -0.03476406985147888], [-0.22521593465057696, -0.06607614503274137, 0.056197754212991134, -0.22026752568652008, -0.119995369316528, 0.045853286688104775, 1.039297778371895, 0.06383507785153603, 0.07893249887007898, 0.372990687303898, -0.005895167719981149, 0.004129117181672842, -0.07538265784544122, 0.012618821447060318, 0.024707338225177976], [-0.26621975085808725, 0.0007013207569653057, 0.06207800315175726, 0.05266945199735595, -0.212733815244132, 0.037258734273511465, -1.33741103655026, -0.03291254328016183, 0.08362550984888854, 0.20935225839063806, 0.01014583023355665, 0.06369384409562508, -0.05721336179085802, 0.10814073652140445, 0.17889622746422426], [-0.008829576230781734, -0.012648046343112177, -0.01461388639343842, 0.06048808799256875, -0.02927345333887743, -0.026718572355469403, -0.36373461233479615, 0.0284274398887996, 0.007641520594693109, -0.03948109688652216, 0.0337987956103505, -0.01007935643204825, -0.009867028376391343, -0.006845909682269986, -0.029245800135301297], [-0.18000334658246855, -0.3613391506448817, 0.13880616347620067, 0.40646646532583014, 0.3893738607864387, -0.5309140112152947, 0.6160055416634391, -0.35057452353386476, 0.08189581240392221, 0.33879488059352864, -0.45492444162172496, 0.4561615028873402, -0.09073359970302292, 0.184989586080764, -0.6472520934543673], [0.22103801814542767, 0.42091558793167627, -0.2918291409951269, -0.21394429134751813, -0.4395859718482263, 0.4586167335286434, -0.20898053880790388, 0.20932938371696655, -0.16699982748691375, -0.1983028778909814, 0.7491112205174889, -0.21042763614010354, 0.2959345025439444, 0.015291700794036498, 0.4004770118785515], [-0.3448420696360965, 0.4914505768228449, 2.5125506556057635, -0.2901519741979306, 0.9939389206833465, -0.05512270851312234, 0.18176812186495317, -0.15420902456820393, 0.02742906695375754, -0.3681577862731901, -0.38519496456554586, 0.12820791144941643, -0.8183409141688568, 1.629648914625776, -0.07996936898575768], [0.09411706138901216, 0.0632187790300849, -2.2557257123589576, -0.09918726388516251, 0.08925937503524185, 0.033654606376067056, 0.19987837325873156, -0.9159918476406811, -0.037034590031381126, -0.19482959249061188, -0.2396449517468173, -0.003283677983914935, 0.39546283793807213, -1.4020265061561368, 0.8740504989763773], [0.09564905955867387, -0.32009480379039734, 0.1392951310720846, -0.30817988539029023, -0.40188405259543275, 0.06828098452535318, 0.08927048513069293, -0.31521695140195716, 0.20860788219612988, -0.038068988541382694, 0.25190659879996935, 0.1878912660861049, 0.09281681480518914, 0.13207352879536077, -0.047161780467205504]], "dtype": "float64", "shape": [15, 15], "Corder": true}, {"__ndarray__": [[-0.06491991676479368, -1.4664027218313709, -0.24071375600525077, -0.20361090984995864, -0.0786972238276491, 0.11178907166293127, -0.7603833109611757, -0.011552078158780999, -1.4969491394805192, -0.6480006526679578], [0.4089397199029103, 0.7591110815686061, 0.403436504053254, -0.0366745806257013, -0.11789236090049382, -0.15155178221130705, -0.3258055446908556, -0.8748835871951992, 1.026748834035403, -1.1366979536094772], [-1.4399998183180818, -0.12744268837150094, -1.0737391007903851, 1.4431550294159656, -0.5252119518924044, 0.5928997273545464, -0.2937347199212948, 2.029090861811818, -0.11738560627514581, -0.08527599973434835], [1.1486180937514592, 1.3359652682738714, -0.26709181948223, -0.14745863509516538, -1.368726018608746, 0.7647323356981931, -1.0519063755044666, -0.6189276117056068, 0.3727150428298948, 0.14310309155565346], [-0.7022981810459625, -2.1651446644203296, -2.338242977860736, -1.0774614316730389, -0.9200491467169594, -0.29708879356039614, 1.5911891714905024, 2.296312492467337, -0.8140022567551027, -1.1376828641155485], [-0.2036866725784817, -0.8712248390466814, 0.057123920237585044, -0.123730199448548, 0.0963814928745326, -0.32904964368057493, 0.15536557483209373, 0.1555655272690791, -0.4880061291634807, -0.4524832172640708], [0.12354146178264785, 0.2877809473577991, 0.12598252150135775, -0.19951647083890606, 0.11052541216698777, 0.2016930407782514, -0.15984678272401515, -0.20768276294957255, 0.12214374987870853, -0.11947023818156227], [-0.8423356265934778, -1.2182064905131849, -2.973077825780249, -0.707227716655203, -0.9312413620791247, 0.05221604456282577, 1.1064760429048908, 1.5235864379591384, 0.1842432640404071, -0.621851783130891], [0.4492032350765549, 0.33944030480217346, -0.004338869908604055, 0.33053646348910015, -0.431883364301164, -1.318355186782886, -0.016020483728854774, -0.13991242773286824, 0.16627299201302292, 0.18203808571702024], [-1.3905192295617943, 1.1779121625778008, -0.4218960719303905, -0.32067472374201605, -1.5027239698904287, 0.468492886648459, -1.00697925689687, -0.5616755479954746, 0.31817007473038167, 0.28411772762347326], [0.7905286463772091, -1.06859645937989, -0.2629814878499055, 0.18862825697930852, 0.065541796955053, 0.0014638033721522034, 0.4688863652763688, 1.9518733524916272, -0.37923398973682426, 0.7712320388067213], [0.29402435681698025, -0.5420278585478429, -0.792899098689472, 1.3459546979810317, -0.34248854713894966, 0.1658489894094391, -1.215660679467083, -0.36324584835969165, -0.26833984675917655, -0.20950117006253188], [-0.5308244152306759, 0.17195085467236998, -0.32638330222409495, -0.7154468221738541, 0.6104835326868843, 0.011656100064409779, 1.1802898605770533, -0.329722241894456, 0.5859348217987411, 0.37124260964991074], [-0.7577850815151006, 0.04870421261937211, -1.1017423887913007, -0.8858319911449534, 0.025192404902690653, -0.320160569781443, -0.3986188139237284, 1.9589250306346084, -0.27472360020769215, 0.1568090786237401], [0.3753526332538141, -0.47795724199262524, -0.14826812844797413, 0.8281186966594023, -0.1310182270899902, 0.8340800692727449, 0.26019512508286774, -0.23512118806238977, -0.3863323857965859, 0.4411030933146583]], "dtype": "float64", "shape": [15, 10], "Corder": true}, {"__ndarray__": [[0.080696583358871, 1.113035571380576, -0.04375841652613527], [1.8856459592671881, 2.3134533954363654, 0.12045678099036254], [-1.0102893665928134, -2.5301571598267727, 0.41570077356036744], [-0.33651997418156654, -1.0443167134285318, -0.03976295957517921], [-0.5215082458086457, 0.918878680522936, -0.5647250091328885], [1.1927106765047488, 0.692173689606314, -0.01829358081602478], [1.2667316864669618, 1.2008533513381823, 0.08605826772134265], [2.7799715491291783, -0.15616045993673505, 0.2703429088080576], [-0.3338502476857856, -2.001039062779653, 0.2562625222729833], [-1.3786940553476585, 1.210873864502245, -0.23853545118691086]], "dtype": "float64", "shape": [10, 3], "Corder": true}, {"__ndarray__": [[1.9217666968620428], [1.3894971214693213], [-2.662451621267578]], "dtype": "float64", "shape": [3, 1], "Corder": true}], "intercepts_": [{"__ndarray__": [1.2507377571265277, -0.1002157771228044, 0.26955714320852064, 1.1563526704954932, -0.07679430626949553, -0.2727663133224617, -0.08549629812393841, 0.2242590167823236, 0.6512941250348881, 0.4235278637948216, -0.7273327441150663, -0.7625203219513903, -0.2646332555053267, -0.15377213805269632, -1.2460795697165443], "dtype": "float64", "shape": [15]}, {"__ndarray__": [-1.9389874102476217, -0.6680629040189455, -1.4755705117698208, -0.4390867724796482, -0.9788125557709679, 0.6920963982024197, 0.08454312627089883, 0.4888808435815003, 0.2150779604492677, -1.846860910045016], "dtype": "float64", "shape": [10]}, {"__ndarray__": [0.29683609043080034, 1.036693322702404, -0.14901723633273875], "dtype": "float64", "shape": [3]}, {"__ndarray__": [0.13818848582197152], "dtype": "float64", "shape": [1]}], "loss_": 0.10149543127953024}}}