{"inputs": ["mhs_channel3", "mhs_channel4", "mhs_channel5", "lat", "mhs_scnpos", "satellite_azimuth_angle", "satellite_zenith_angle", "solar_azimuth_angle", "solar_zenith_angle", "relative_azimuth_angle", "avhrr_channel1", "avhrr_channel2", "avhrr_channel4", "avhrr_channel5", "avhrr_scnpos"], "targets": ["iwp_log10"], "scaler": {"params": {"copy": true, "with_mean": true, "with_std": true}, "coefs": {"mean_": {"__ndarray__": [232.16751063316056, 239.15574009948784, 241.25841758714193, -32.00491446652925, 44.20380088919885, 237.53736405685393, 8.564418429440346, 218.5743019752629, 92.82572227354011, 53.91406646944055, 10.124919659210546, 10.164065831846472, 244.09785010151683, 243.16473649139638, 210.69125358615466], "dtype": "float64", "shape": [15]}, "n_samples_seen_": 57355, "var_": {"__ndarray__": [76824.8567169096, 78980.5575595214, 77529.10232467424, 2320.137481951305, 62.48712006636135, 6985.025360685306, 29.41393052868146, 5744.637279899762, 1458.90319158923, 7002.51880099307, 263.7344127037942, 263.45736625311554, 1108.4920247800912, 956.9540661417146, 1054.9738841861583], "dtype": "float64", "shape": [15]}, "scale_": {"__ndarray__": [277.1729725584903, 281.03479777337435, 278.4404825535867, 48.16780545085384, 7.904879509920525, 83.57646415519925, 5.4234611207863805, 75.79338546271542, 38.19559125853702, 83.68105401459204, 16.2399018686627, 16.231369820600957, 33.29402385984745, 30.93467417222484, 32.480361515632154], "dtype": "float64", "shape": [15]}}}, "estimator": {"params": {"activation": "tanh", "alpha": 0.0001, "batch_size": "auto", "beta_1": 0.9, "beta_2": 0.999, "early_stopping": false, "epsilon": 1e-08, "hidden_layer_sizes": [15, 10, 3], "learning_rate": "constant", "learning_rate_init": 0.001, "max_iter": 2000, "momentum": 0.9, "nesterovs_momentum": true, "power_t": 0.5, "random_state": 5, "shuffle": true, "solver": "lbfgs", "tol": 0.0001, "validation_fraction": 0.1, "verbose": false, "warm_start": false}, "coefs": {"n_outputs_": 1, "n_iter_": 2001, "t_": 0, "n_layers_": 5, "out_activation_": "identity", "coefs_": [{"__ndarray__": [[0.44684131428377055, 1.1400577781956684, -1.2981130873262632, -0.2683657197762087, -0.01914478897278867, 0.12752669536219546, 0.007108273243636899, 0.5198151497385125, -0.6697248828578679, -1.3910696500601323, -0.21422506282063822, -0.40890997505959503, -0.03089094286231991, -1.1059558083869578, 0.6441047774247485], [0.09168987151634947, 0.668538803085138, -3.0077695357549086, 0.43974497182278255, 0.11231731245386822, 0.2718349739511169, -0.5378225795473108, -0.2067894824283592, -0.7537397671207292, -0.31152652649618284, -2.638965255850075, 0.8486584303774812, 0.6893384468871957, 1.6418810779733064, -0.09454356264209372], [0.12444213421931319, 1.5186969758484492, 0.2790039212595288, 1.700719918742082, -0.1749171747646126, 0.1399646213404052, -0.9311357888719906, 0.29244215940972257, 0.17227232576566198, 2.649969187319632, -2.121860863187527, 2.256267776502114, 1.3705937616135315, 1.6420665046960212, -0.9149314342384525], [-0.1884303602600959, 3.059671388728405, -0.11212878703703219, 0.3385347064211961, -0.1766619309657876, -0.9958064247067622, -0.9407905386492875, -1.0796698835484249, -0.5252222075272186, -0.33128491508813246, 0.21633723135102653, 0.3422548531577325, 0.2936021754823744, -0.029700740639081333, -0.31968438595874565], [0.3357477050832063, 0.29409681828687145, -0.20050806281642347, 0.22639960397438189, 0.2127151124070579, -0.3437987433573597, -0.0185266359122932, 0.03677883982181927, 0.05225264699317445, -0.12481976438459594, -0.7189837916534241, 0.13976398509161223, 0.02610485598222166, 0.1309298678782889, 0.2908770672534291], [-0.02254378869747322, 0.0889652956756011, -0.014150194124454101, -0.140274031706413, -0.13317524200170175, 0.3012282713402381, -0.18692022945860307, 0.017518986186164563, -0.09180249644183408, -0.0412027768737163, 0.0073997091547203684, -0.13730830265348448, 0.13032565964958712, 0.006769456864635582, -0.018871648063404252], [0.1230271698474954, -0.054447108975175164, -0.08318185667681278, 0.10441983860985633, 0.2015239185672977, 0.06041897748566614, -0.2595800678652686, -0.18746434578424795, -0.16619303816551007, 0.09431514694579136, 0.09684161988298948, -0.027335747890297177, 0.03067381357111339, -0.13346639094549737, 0.0339427626214874], [0.17343701836744638, -0.007066817477688616, -0.057178655923710575, -0.08588554529184621, 0.4310991906986945, -0.30694004689552334, -0.22558729018310525, -0.10317347474124579, -0.7241423238465892, -0.10474559411562476, 0.0808974048642464, 0.037845887886942736, 0.14579454361434288, 0.03824423856236234, -0.022655388126399337], [-0.05456306724735143, 0.11388755252369034, -0.06298728267802853, -0.06479433954996229, -0.022966044954746224, 0.4952067124758859, 1.1725763290733522, 0.03153913954958932, -0.18588377253233299, -0.1386764662291779, -0.11206245850846115, -0.34863916929324423, 0.3343739222829103, 0.09729394732307628, -0.35023559228307133], [0.04061292547582977, 0.13799352338185455, 0.003243216583155865, -0.15032230270533548, -0.011165036996098067, -0.13125384481962535, 0.150097974422709, -0.08344095144426722, 0.16347687801248054, 0.026219579947360423, -0.07536774610806457, -0.02607703454517516, 0.019553822417254348, -0.0010452949931942504, 0.04787945759523241], [0.4269593070639087, 0.0014496218082461281, 0.11035754415357944, -0.15473099231332557, 0.6014397042961606, 0.29345628846179117, 0.5277755782426455, -0.0927631024441025, -0.023071530334706773, -0.15120516096264758, 0.03581633823982488, -0.3300745895806107, 0.4450060789359657, -0.13135031769633787, -0.11219932258385694], [0.07478153473174509, 0.18754360749802745, -0.4343856063293293, 0.44518040509377105, 0.047979192825411694, 0.37293363073656166, -0.34113146964590857, -0.4336558928966361, -0.21063421896893836, 0.18099617261722792, 0.07954419079802748, 0.030012481980775347, -0.46917653753677196, 0.27578265018671677, -0.2955755526484265], [-0.3401957795076102, -0.5722160181176498, -2.304607138321909, 0.2655596852475128, 0.6484577383797644, 0.9915602112302638, 1.1436951585526023, 0.05046845632940719, -0.0521612936019555, 0.19907781020672233, -0.056630002775015634, 0.1334207527588752, -0.09924844536510058, 1.5373704332256968, -0.29676465880669145], [-0.12873608139566678, 0.3309619125751373, 2.16936881890091, -0.7867585614498868, -0.8299955528556212, 0.8258474035412854, -0.7771598474088769, 0.41216788213912736, -0.28337315214425307, -0.6128661994272444, 0.02705478719561445, 0.09925826241426274, 0.28246631371343267, -1.1797592858339927, -1.234449476319568], [0.12162485038032413, 0.10757359901444119, -0.1873674352552567, 0.4011527702716127, 0.09283101355910497, -0.25515950672746224, 0.024805948160086896, -0.07491817225977146, 0.09115991601738391, 0.008025664936560881, -0.6245763158878832, 0.11663229382807284, 0.0788241595501566, -0.14434631333214817, 0.2633632160353989]], "dtype": "float64", "shape": [15, 15], "Corder": true}, {"__ndarray__": [[-0.1475152397924944, -0.06567602086383387, 0.7873304713289984, 0.36375642836884176, -0.771901621264156, -0.8527181587733358, -0.8216214930479557, 0.13440495462881827, 0.4510398251550111, 0.1450238421483549], [-0.4646993096617277, -0.23672812488469386, 0.20545817132838687, 0.5463026359006126, 0.14372751867614522, 0.7459578524749947, -0.2575526084052824, -0.39586360439526264, -1.8045438838881454, 0.24234496391460314], [0.6387684428099404, 0.3460473534817334, 1.7437847615626403, 0.639592711666759, -0.3717582093651994, -0.48960521143117647, -0.7414161002101648, -0.5198620597348051, -0.33993945275226817, 2.0115605389958016], [0.3943451939360196, -1.0648363533512086, 0.36167471949519986, 0.42982695513814045, -0.03999749558606417, 0.49692679850320937, -0.5562936714353879, 0.7399107276572038, -1.0264726621487246, 0.25779274601681024], [0.2169901715229393, 0.8953198729012147, 0.11327290222759621, 0.1388368669544591, 0.2745229885984376, -0.20775728513704722, 0.8250231457991271, -0.013954144868366271, 0.6521615873445175, 0.09513471082564486], [0.09664488770669756, 0.28220170333696576, -0.07457323868102714, 0.2760322861326304, -0.507581770265222, 0.24909648224238692, -0.216354642893344, -0.027666055120631156, 0.7766375905626656, -0.4790543761683837], [-0.22726935649164298, 0.6498903702926124, -0.48143155655609593, -0.3743354993403929, 0.1098754270226506, -0.4049189719160598, -0.4208529265931632, -0.10595078262357238, 0.8676066758185438, -0.13103449337535678], [-0.3475852198203398, 0.10810397202677456, 0.19072641289149064, 0.1815889607353818, 0.3058944614668581, -0.8083119208266307, -0.5147668885353353, -0.22545297125919767, -0.2501885502356775, -0.34301763206524083], [0.5480813515403724, 0.8279078607234807, 0.49215629978126796, -1.3382260209481318, 0.028479532386742428, 0.7719065173577006, 0.37961958370893045, -0.6751191270253167, 0.6344069581143671, 0.37449663585543413], [1.9536999980959777, 0.23963996824552194, -0.6393538747716954, 0.8980770020646592, 0.20070104872081454, -0.6570558508218185, -0.9438656492870705, 0.8269335702179117, -1.597552406828793, 1.062809154983943], [-0.3040799589480136, 2.1627546364691, -0.5461800602283248, -0.9060805671491291, 1.4056728305504673, -1.0823831059223468, 0.391069336643992, -0.38897781079100413, 0.9560243853189464, 1.2331162384054863], [0.5486180429554913, -0.701025522822079, -0.21446642251702594, -0.16513444381294298, -0.9895520702306302, 0.6588193434856315, -0.6914896405194997, -0.15159134506041697, -0.8420930626900748, -0.7994731997097717], [1.7408591145879544, 0.07725863742817843, 0.2170983061993416, 0.4074780742057217, -0.19297127463511937, -0.2288410092994421, -0.6865037129318635, 1.0751298433359358, -0.6558118607776335, 0.24538449825423614], [1.12718471297822, -0.33476199509469134, -1.2236764934325468, 1.9453149814861916, 0.896524327976756, 0.40617449597740374, 0.339302026931629, 1.7417438671071535, -0.9171282530010403, 0.6974115077029905], [-0.767373132926123, -0.13168389502692696, -0.850021641780516, 0.20336253249920883, 1.0743764976949925, 1.3792937696615604, 0.4666859792639332, 1.2147356119636405, 0.9484078596243039, -0.0893375039523209]], "dtype": "float64", "shape": [15, 10], "Corder": true}, {"__ndarray__": [[-0.41666597794076043, 2.758949724558065, 1.6819704809932627], [-1.187121644946116, 2.2338866041989256, -1.7210482742165245], [2.120867990085196, -0.9980520169538124, -2.3490514841746917], [-0.30274275032380893, 1.6562293874275533, -0.34895357354063583], [-0.2785739276609546, 1.6867543848692939, -1.4459061260509556], [-1.2642781869104387, 1.5426842029950565, 0.1271449863769264], [-0.7411992771699312, -1.4916161239529224, 0.23539474423440754], [1.4086093782588751, 0.49306932434993267, 0.5935544765575755], [0.36955908558962086, -1.330903505269657, 0.9020968345264974], [-0.11734784308491526, 1.9484262439129563, -0.35030643085739854]], "dtype": "float64", "shape": [10, 3], "Corder": true}, {"__ndarray__": [[-1.3699257969302576], [1.2077641700533128], [-1.2477667173488531]], "dtype": "float64", "shape": [3, 1], "Corder": true}], "intercepts_": [{"__ndarray__": [-0.0979995024647187, 0.556109941171654, -0.12161104561967397, -0.12212219642638875, -0.26431296894068257, -1.051107246608361, 0.38902417027257735, -0.4510062365030885, -1.6848738641088983, 0.24084175703822852, 0.2746422971001622, -0.1418867864553729, 0.2898103815064206, -0.18503190814217926, 0.859108522191013], "dtype": "float64", "shape": [15]}, {"__ndarray__": [-0.8855728694824674, -0.16480237452106386, 0.4641186306321518, 0.15651158630698017, 0.915640562413826, 1.5012455718622, -0.3352824377886547, 0.09797901774696872, -1.7608725780585874, 0.07228634844464371], "dtype": "float64", "shape": [10]}, {"__ndarray__": [-0.9000298198115125, -1.4148333142795653, -0.186808566704674], "dtype": "float64", "shape": [3]}, {"__ndarray__": [0.10306110120966562], "dtype": "float64", "shape": [1]}], "loss_": 0.11705764908829278}}}