{"inputs": ["mhs_channel1", "mhs_channel2", "mhs_channel3", "mhs_channel4", "mhs_channel5", "cloud_filter", "lat", "sea_mask", "mhs_scnpos", "solar_azimuth_angle", "solar_zenith_angle", "avhrr_channel3", "avhrr_channel4", "avhrr_channel4_std", "avhrr_channel5"], "targets": ["iwp_log10"], "scaler": {"params": {"copy": true, "quantile_range": [15, 85], "with_centering": true, "with_scaling": true}, "coefs": {"center_": {"__ndarray__": [234.13999476656318, 258.14999422989786, 241.88999459333718, 253.2399943396449, 261.509994154796, -1.2874999712221324, -1.7942999546721694, 1.0, 48.0, 201.1199955046177, 70.66999842040241, 267.05427974515726, 252.72436935117003, 1.9569302900628693, 251.19582771866894], "dtype": "float64", "shape": [15]}, "scale_": {"__ndarray__": [61.93999861553311, 63.93999857082963, 8.399999812245369, 15.509999653324485, 33.81999924406409, 2.5533332762618954, 127.31917678364698, 1.0, 19.0, 159.10999644361436, 101.49999773129821, 46.368140821733135, 44.78585614181523, 4.540299749006119, 43.55668234311554], "dtype": "float64", "shape": [15]}}}, "estimator": {"params": {"activation": "tanh", "alpha": 0.0001, "batch_size": "auto", "beta_1": 0.9, "beta_2": 0.999, "early_stopping": false, "epsilon": 1e-08, "hidden_layer_sizes": [15, 10, 3], "learning_rate": "constant", "learning_rate_init": 0.001, "max_iter": 3500, "momentum": 0.9, "nesterovs_momentum": true, "power_t": 0.5, "random_state": 70, "shuffle": true, "solver": "lbfgs", "tol": 0.0001, "validation_fraction": 0.1, "verbose": false, "warm_start": false}, "coefs": {"n_outputs_": 1, "n_iter_": 3501, "t_": 0, "n_layers_": 5, "out_activation_": "identity", "coefs_": [{"__ndarray__": [[-0.030770034261653586, -0.08722011109190779, -0.6516280100525993, -0.22199504862409516, 0.4922848273256095, 0.4530355020047183, 2.0699852589267715, 0.2573427437565153, -0.5231268934185083, -0.47659692514711244, 0.7358426151109809, -0.0862001505595578, 0.06706804138678214, -0.5624783406263515, 0.5326566334730243], [0.7329781223531215, -0.9261432532207107, 0.9191461713498782, 0.2928713526157058, -1.2832700571891766, -0.07489724655204423, -1.4964431859250462, 0.780062291594862, -0.4470030871535831, -0.13461510143906305, -3.3155011792712714, -0.4130826065263918, 0.7701594125961757, 1.608410353878217, -1.6392727020075737], [-0.09631337426430549, -0.8164196687453449, 0.09963977010357154, 1.7447519895426418, -0.13124064371669691, 0.00994990388736611, 0.3158545567674559, 0.05653320044513103, 0.034393371911768486, -0.0780405936414178, 0.19096739570966298, -0.2190424857842494, -0.040578189033492584, -0.1588208867759123, 0.22999946935674692], [0.566334553425667, 1.9278648620220744, 0.00969310935088067, -0.4176230956464616, -0.00563141539512804, -0.27727950117259886, -0.8023033306198021, 0.336366650565726, 0.4512726622342144, 0.5478376889433042, -0.24104083431932433, -0.0011364887090162831, -0.44096825312281124, 0.7578099804337393, -0.8207998024155946], [-0.9548982330416435, 1.157016567037399, -1.362390590341217, 0.02732092215917348, 1.1479022334204838, 0.8256969874529299, 0.4452951144229187, -1.5978515258638282, -0.4765488654277079, -0.303818895131126, 0.2681656058078934, 1.8387526800296203, 0.4479489617546255, -1.319592244290344, 3.249014475561463], [0.43603076318667816, -0.25273615875094396, 0.08736507603714484, -0.018510974441206994, 0.22876224904705053, -1.0714003659749871, 0.008987039587152593, 0.7510501411316032, -0.3989902421661302, -0.05939157272026579, -0.07139465213481791, -0.045098230036543605, 0.06313676109806084, -0.010897749927308114, -0.10546005190875851], [-0.9183018426657514, 0.29336478847371406, 0.0859646479343292, 0.0628963376828042, -0.10531900154494869, -0.04615769196153728, -4.093608244732945, -0.28022632058067526, -1.2639681725157614, -0.9912336550980334, 0.006982011773138862, 0.5759240037868208, -0.2573600987028095, 6.521335588945504, -0.04595160402359336], [0.027346900626229076, -0.08627727418389639, -0.03568145252591049, 0.03831692524628144, 0.025534037974852715, 0.038470084442292156, 0.1861018892586643, 0.01855702784202669, 0.06424156953785873, 0.07622944529289938, 0.012032948461361794, -0.1044780054635521, 0.05693697089957027, 0.001848503783716976, 0.060372916552407625], [-0.028987080285422618, 0.011718990715361364, -0.06597221774308214, 0.022431507544247956, 0.06176949750502211, 0.039153288714616916, -0.07881793514469482, 0.0038105356935281024, 0.0231939176295336, -0.01567156180774815, 0.009617184447665104, 0.0059808692941278364, 0.010966602362395743, 0.05250463849729046, -0.015427751298547747], [-0.034482458743199385, 0.03698994630563456, 0.08246599225556671, 0.26046845940501057, -0.051286701105584774, -0.07928460367986796, -0.5346792152851475, -0.026659507736126326, 0.04365275023684, -0.11657505249259902, -0.08330292019391174, 0.1320597677091471, -0.11103594728127536, -0.08378985795181444, -0.09698974989607169], [-0.8278007217852814, 0.5605948721253448, 0.45338281678522313, 0.5617493017287633, -0.07377716420520754, -0.3008700242485278, 0.629688379141513, -0.2591905042942479, 0.6826797406889686, -0.274428933020173, -0.18901683821577495, 1.245524675030196, -0.03231663242679123, -0.10562267931059363, -1.2590946465339736], [-0.8847332339320415, -0.04681041818672133, -0.09728054371875061, 0.31313588441211004, 0.7154485614979432, -0.16674365969341468, 1.1670840772499327, -0.10628874068896241, -0.015333782459766259, -0.040578816877567, -0.2731439693642752, -0.05907252689601758, 0.0955738341501304, -0.3799290511354813, -0.3440005787358511], [-0.6715668809130501, 0.14433205094731877, 0.7976620632894559, -0.16108128040942407, -0.11530276976408288, 0.13428989599802812, -0.5037422288448042, -0.16250610418892136, -0.07288910373685542, -0.827471172764965, -0.09596644761407988, -0.19093408860642505, 0.27176888081833295, -0.2499523368261295, 0.2831644481658665], [0.01327405692531605, 0.08775159996899548, -0.13267688904492247, 0.2764476126922316, 0.02653779110720656, -0.1077788970657192, 0.01775150275587542, -0.15400336914961676, -0.11307158968896835, -0.18101575293190672, 0.03764078883180398, 0.1690220608983002, -2.4409106214757013, -0.1110210405415499, -0.20010003665697648], [-0.12166879942983407, -0.17362623816132924, 0.8453074176974668, 0.01753753215875038, -0.5343228748325287, -0.449488238739358, -0.14053954427171525, 0.008653624642298852, -0.7731155295812687, -0.7712705657404935, 0.020213360462162776, 0.278735611975895, 0.3848597936601047, -0.5889755780360415, -0.03283540505573426]], "dtype": "float64", "shape": [15, 15], "Corder": true}, {"__ndarray__": [[-0.02834277467959256, -1.5510236856818391, -3.362199487734983, 0.18627444149960765, -0.15051036049235747, -0.2174119915580154, 0.838766057050135, 0.8241106371173686, 0.21326047055527897, -0.714307974749037], [-0.7971537128642618, 0.40388658563854957, 1.8198428251556586, -0.10235911993064623, -1.2863607673317323, -0.4926461954297612, 0.9892920290461169, -1.804162344867527, -0.05484032495858393, 1.422381253011261], [0.14947722964052623, 2.1788076817325455, -1.064301025296187, -0.4160341242106025, 0.6179128663332669, 0.5714471447385395, -0.7330185885004994, 0.2394001313156717, -1.3760306836756184, -1.0230115992128364], [-0.6382442035048359, 0.10912765938975856, 0.23671989921926118, -0.8908715700182646, -0.23846747396470389, -0.27798425780518293, -0.018151853759435257, -0.21416994589308935, -0.008635716052378511, 0.2247415583675491], [1.1222480235417762, 3.7440196853838072, -2.388291745562607, 1.8443447554324919, -0.3309543409197641, 1.1185193303377063, 0.7529236722060303, 0.41865278627116764, -0.8919105756236192, 0.31190042507340415], [0.10560570431738714, -1.284864094517621, 0.1543847824497947, 0.20172981248411753, 0.2522201311441198, 0.4356802325288136, -0.8451003602426153, -1.0999844759198396, -1.7133658526252018, 0.17417585848911352], [-0.9078561443166313, 0.24970942016085856, -0.4821702995519849, 0.028842541174681352, -0.007919052709783166, 0.04492284139502971, -0.07066226195305064, 0.8205393682757643, -0.35184874511702763, 0.9820963889825949], [-0.7053723886722264, 0.6820176609254042, 1.8952589625158762, 0.03488927003729078, 0.18983554917750958, -0.036329725589463485, -1.030576986923151, -0.765620525279051, 1.0601090382294727, 1.3881888110153489], [-1.058717685500165, -0.354623161027518, 1.8440677519475417, 0.24835994317610385, -0.29507605352333416, 0.115762473094292, -0.005163670436436118, -1.313008374369448, 0.09013547526152292, -0.12810554311732533], [0.7719720412618022, -0.770195674422274, -1.1747267048366943, 0.8905265028667297, 0.6338708385798664, -0.4247802712682404, -0.48656291109846433, 3.0516073685415575, -0.2646317453877939, -1.616521986475794], [-0.17658735307179055, 0.05728184261503019, 0.34305440932297926, -1.2600259132879241, 0.8711184165049344, -0.5048485832377059, -1.4769846749079196, -2.632649241561461, 1.634014017499913, 0.924723244511212], [0.7860503106516449, -1.0336078976874017, -2.0417692190093284, 0.4415358122340733, -0.3279042633771589, 0.7465675917943267, 0.9650725342240638, 1.6926188904796864, 0.5461692743264148, -1.0618077505515289], [-0.9650020752457853, -0.4362424845698387, 0.21280026159001628, -0.3944022421834223, -1.1050973388532768, 0.21725647141932233, 1.4559793710986226, -1.146026598347575, 2.5003255500335912, 0.23107049434733443], [-0.5192893819069148, 0.3271971524948357, -1.3048522136012872, -2.4889876382122664, 0.43915351368846806, -0.3339261414615637, -0.5284702341532688, 1.0403261816558709, -0.25958787967738445, 0.4319494893965059], [-0.46298555574545264, -0.012476840743557342, -0.15398683572615127, -1.1843729047284703, -0.9780030656819967, -0.021979557170813215, 1.332945768367274, 1.0437062740438379, 0.40358308075938315, -0.32853627699401583]], "dtype": "float64", "shape": [15, 10], "Corder": true}, {"__ndarray__": [[0.3855020974544744, 0.01849034050233538, 0.20260427993124638], [0.26507997759936813, -0.04777568983785496, -0.26299094675876294], [-0.16405260467523658, -0.4387440092285451, -0.2628275718571131], [0.07705141785420357, -0.04263986923877657, 0.12150277077273726], [-1.1063573076141948, -0.6916621612620896, 0.5665207700509916], [0.5063506784248127, -0.1850729067997835, -1.0178849146232634], [-0.38677785437688633, 0.1039969625283891, 0.736832238659946], [1.3117650024185377, 0.33023709994323047, 0.1937041087918004], [0.7675221830787988, -2.0104248974566237, -2.6517036588675316], [-0.028863567099584844, -0.10426600962044341, 0.198581937311928]], "dtype": "float64", "shape": [10, 3], "Corder": true}, {"__ndarray__": [[2.797731129094107], [-2.1686235099682247], [3.038867125541515]], "dtype": "float64", "shape": [3, 1], "Corder": true}], "intercepts_": [{"__ndarray__": [-0.3710734749042088, 0.0038594134092206, -1.1499166079098064, 0.34305988566483525, 0.774363888186826, 0.8342452916380715, -0.09846561891163824, 0.09274690282149332, 1.3268500054565608, 1.6018880962116953, 0.9841626820137722, -0.10603581076813531, -1.8949204100920682, 2.1963601303157025, 0.5530085878720205], "dtype": "float64", "shape": [15]}, {"__ndarray__": [0.030324868397019217, -2.010567429715553, -0.6521834898994882, 0.3274644063342306, -0.5868363713233407, 1.3600685643916535, 1.4093504313997658, -0.1968276864292367, -0.5588425062698451, -1.3917826624591603], "dtype": "float64", "shape": [10]}, {"__ndarray__": [2.609710941095268, -1.4685131375727327, -1.5532103055357933], "dtype": "float64", "shape": [3]}, {"__ndarray__": [-1.2974817787589492], "dtype": "float64", "shape": [1]}], "loss_": 0.0946685797853039}}}